{
    "numLayers": {
        "count": 5
    },
    "Layer_0": {
        "name": "input",
        "type": "InputLayer",
        "Input Height": 640,
        "Input Width": 360,
        "outputPlanes": 1,
        "batch_input_shape": [
            null,
            null,
            null,
            1
        ],
        "inbounds": [],
        "numInputs": 0,
        "inputId": [],
        "inputPlanes": 0
    },
    "Layer_1": {
        "name": "conv_1",
        "type": "Conv2D",
        "kernel_size": 5,
        "padding": "same",
        "strides": 1,
        "outputPlanes": 16,
        "useBias": "True",
        "weights": {
            "kernel": [
                0.009578529745340347,
                -0.04063742607831955,
                0.03531745821237564,
                -0.041190482676029205,
                0.006303527858108282,
                -0.034727081656455994,
                -0.025099463760852814,
                0.11302348226308823,
                -0.01693982258439064,
                -0.04185174033045769,
                0.022539570927619934,
                0.09140467643737793,
                0.28078144788742065,
                0.10284075140953064,
                0.020475171506404877,
                -0.03603275492787361,
                -0.03516419976949692,
                0.09822595864534378,
                -0.028507161885499954,
                -0.044163912534713745,
                0.016804618760943413,
                -0.03999818488955498,
                0.03580290079116821,
                -0.03965708985924721,
                0.008693650364875793,
                -0.0035213560331612825,
                -0.0021834305953234434,
                -0.004009630531072617,
                -0.0027863658033311367,
                -0.00546104134991765,
                -0.0011322854552417994,
                -0.0034953260328620672,
                -0.00438544200733304,
                -0.0028292404022067785,
                -0.002623266540467739,
                -0.003594393841922283,
                -0.0038831045385450125,
                -0.0022292667999863625,
                -0.002156069502234459,
                -0.0036287945695221424,
                -0.004546496085822582,
                -0.003840419463813305,
                -0.0022663609124720097,
                -0.003754550125449896,
                -0.0035080942325294018,
                -0.001973605714738369,
                -0.0017780183115974069,
                -0.0031730555929243565,
                -0.0046497066505253315,
                -0.004120350815355778,
                -0.010236524976789951,
                -0.013909637928009033,
                0.015187420882284641,
                -0.013937865383923054,
                -0.010312668047845364,
                -0.012898432090878487,
                0.01230316050350666,
                0.05780218169093132,
                0.011604364961385727,
                -0.01026593241840601,
                0.01095542125403881,
                0.057830311357975006,
                0.12103491276502609,
                0.05594426766037941,
                0.011809825897216797,
                -0.014270934276282787,
                0.00755638163536787,
                0.05189063400030136,
                0.006700942292809486,
                -0.01169729046523571,
                -0.010310398414731026,
                -0.014272820204496384,
                0.014703133143484592,
                -0.011592875234782696,
                -0.006051248405128717,
                -0.0137787451967597,
                -0.012157892808318138,
                0.0115210535004735,
                -0.012881310656666756,
                -0.015171973034739494,
                -0.009222688153386116,
                0.012873063795268536,
                0.04800945520401001,
                0.012905233539640903,
                -0.012092489749193192,
                0.017173530533909798,
                0.048354122787714005,
                0.09042816609144211,
                0.048851482570171356,
                0.01663658395409584,
                -0.01304649282246828,
                0.00747408764436841,
                0.04165951907634735,
                0.0056470176205039024,
                -0.012205271050333977,
                -0.012078240513801575,
                -0.011574243195354939,
                0.012466643005609512,
                -0.010564182884991169,
                -0.010939637199044228,
                -0.012636103667318821,
                -0.012669323943555355,
                0.016406254842877388,
                -0.012027931399643421,
                -0.009063669480383396,
                -0.011649657040834427,
                0.01213776133954525,
                0.06058421730995178,
                0.013067346066236496,
                -0.01050463318824768,
                0.01292554009705782,
                0.05760258063673973,
                0.12003739178180695,
                0.05564337968826294,
                0.012549246661365032,
                -0.012430297210812569,
                0.007520092651247978,
                0.055331986397504807,
                0.007711008191108704,
                -0.012187004089355469,
                -0.00937971007078886,
                -0.01341310515999794,
                0.014195570722222328,
                -0.010591565631330013,
                -0.005854833405464888,
                -0.011462254449725151,
                -0.012820507399737835,
                0.01316092535853386,
                -0.013008748181164265,
                -0.011280074715614319,
                -0.01163486111909151,
                0.013454358093440533,
                0.06026558578014374,
                0.014896102249622345,
                -0.008549193851649761,
                0.012252611108124256,
                0.05543413758277893,
                0.11267305165529251,
                0.056281547993421555,
                0.011639081872999668,
                -0.012498856522142887,
                0.008114184252917767,
                0.051971323788166046,
                0.007745688781142235,
                -0.012449230067431927,
                -0.008860061876475811,
                -0.011581373400986195,
                0.01379257719963789,
                -0.010212908498942852,
                -0.0057744430378079414,
                -0.01092617865651846,
                -0.006823436822742224,
                -0.007098139729350805,
                -0.006591516546905041,
                -0.006471936125308275,
                -0.00826279167085886,
                -0.007347327657043934,
                -0.0068107182160019875,
                -0.005728915333747864,
                -0.00674429489299655,
                -0.007010146975517273,
                -0.006856212858110666,
                -0.0067076790146529675,
                -0.006682113278657198,
                -0.009019088931381702,
                -0.010059724561870098,
                -0.0067217303439974785,
                -0.009573069401085377,
                -0.006242820993065834,
                -0.006801250856369734,
                -0.008779942989349365,
                -0.007738151587545872,
                -0.005812488496303558,
                -0.007806271780282259,
                -0.0065593901090323925,
                -0.004831647500395775,
                -0.004977232310920954,
                -0.0031925211660563946,
                -0.0034186621196568012,
                -0.004973664414137602,
                -0.0036236608866602182,
                -0.003032335778698325,
                -0.0028547169640660286,
                -0.00632392056286335,
                -0.0048641664907336235,
                -0.005526142194867134,
                -0.005659725982695818,
                -0.004352598916739225,
                -0.003993248101323843,
                -0.0021682684309780598,
                -0.0034022119361907244,
                -0.004402077291160822,
                -0.0026468937285244465,
                -0.00506065646186471,
                -0.0034712227061390877,
                -0.005088087171316147,
                -0.004201236180961132,
                -0.0057126497849822044,
                -0.0038991612382233143,
                -0.004834553226828575,
                -0.011506982147693634,
                -0.011735779233276844,
                0.017161468043923378,
                -0.011197117157280445,
                -0.01122143492102623,
                -0.011257493868470192,
                0.013608798384666443,
                0.058195244520902634,
                0.01437213271856308,
                -0.010704015381634235,
                0.01219453476369381,
                0.057483822107315063,
                0.11776559054851532,
                0.056878577917814255,
                0.012446348555386066,
                -0.012808539904654026,
                0.006793594919145107,
                0.05150656774640083,
                0.009772389195859432,
                -0.010869970545172691,
                -0.0076350378803908825,
                -0.013533364981412888,
                0.012768220156431198,
                -0.011806502938270569,
                -0.008298881351947784,
                -0.0013078496558591723,
                -0.002750392770394683,
                -0.0025076328311115503,
                -0.001907280064187944,
                -0.002327896887436509,
                -0.0034917735029011965,
                -0.002305599395185709,
                -0.0034930992405861616,
                -0.0027618317399173975,
                -0.004571364726871252,
                -0.00376716791652143,
                -0.004302928689867258,
                -0.0031086555682122707,
                -0.005737985949963331,
                -0.004253782797604799,
                -0.006043147761374712,
                -0.005221488419920206,
                -0.002192110987380147,
                -0.0043089669197797775,
                -0.0017950152978301048,
                -0.002830930519849062,
                -0.003368532285094261,
                -0.004128336440771818,
                -0.004075983539223671,
                -0.0032082796096801758,
                -0.016592252999544144,
                -0.01666996441781521,
                0.009133007377386093,
                -0.017730452120304108,
                -0.014631557278335094,
                -0.015374785289168358,
                0.007215648889541626,
                0.05414717271924019,
                0.007519340142607689,
                -0.015796693041920662,
                0.008696747943758965,
                0.05399443209171295,
                0.11942458152770996,
                0.05361707881093025,
                0.008662059903144836,
                -0.01877548359334469,
                0.0031044650822877884,
                0.04898778721690178,
                0.004885906353592873,
                -0.01735011301934719,
                -0.012138891033828259,
                -0.01549974549561739,
                0.01011141948401928,
                -0.014656398445367813,
                -0.011566363275051117,
                -0.011124283075332642,
                -0.010855245403945446,
                0.013928822241723537,
                -0.012406164780259132,
                -0.011755154468119144,
                -0.010323634371161461,
                0.013756287284195423,
                0.058079492300748825,
                0.012687923386693,
                -0.009757584892213345,
                0.011699921451508999,
                0.056817155331373215,
                0.11477280408143997,
                0.05668109282851219,
                0.01266393344849348,
                -0.012032478116452694,
                0.009266660548746586,
                0.05026914179325104,
                0.009642252698540688,
                -0.011825701221823692,
                -0.010127983056008816,
                -0.012250791303813457,
                0.013053519651293755,
                -0.010405106469988823,
                -0.008255775086581707,
                -0.016272326931357384,
                -0.013398909941315651,
                0.00849826168268919,
                -0.014044443145394325,
                -0.017916923388838768,
                -0.012110046111047268,
                0.013047099113464355,
                0.04702642932534218,
                0.011031243950128555,
                -0.013206873089075089,
                0.012530223466455936,
                0.04819994792342186,
                0.09027830511331558,
                0.04769422486424446,
                0.012519042938947678,
                -0.011667490005493164,
                0.007285851053893566,
                0.03939109668135643,
                0.008849073201417923,
                -0.014019141905009747,
                -0.013595518656075,
                -0.015808215364813805,
                0.00973998848348856,
                -0.01084841974079609,
                -0.01397696603089571,
                -0.01118951290845871,
                -0.011411665938794613,
                0.013255396857857704,
                -0.011917815543711185,
                -0.011680006980895996,
                -0.012112286873161793,
                0.011321138590574265,
                0.04986828193068504,
                0.011579031124711037,
                -0.01040599588304758,
                0.019935080781579018,
                0.05196738243103027,
                0.09498828649520874,
                0.05132002383470535,
                0.01777304708957672,
                -0.01065037865191698,
                0.010031331330537796,
                0.04492737725377083,
                0.007301288656890392,
                -0.010660222731530666,
                -0.009143805131316185,
                -0.012366478331387043,
                0.013435130938887596,
                -0.012886480428278446,
                -0.010224884375929832,
                0.010775331407785416,
                -0.0348680280148983,
                0.03658676519989967,
                -0.03488578647375107,
                0.01339665800333023,
                -0.03637344762682915,
                -0.027522766962647438,
                0.10190252959728241,
                -0.023607386276125908,
                -0.035833634436130524,
                0.022828156128525734,
                0.09417889267206192,
                0.2756669819355011,
                0.09699724614620209,
                0.021392421796917915,
                -0.03787066414952278,
                -0.03267098218202591,
                0.09800712019205093,
                -0.028763804584741592,
                -0.041030850261449814,
                0.011426366865634918,
                -0.04269978031516075,
                0.029226241633296013,
                -0.039921268820762634,
                0.008129213936626911,
                -0.00016033396241255105,
                -0.00015170726692304015,
                -0.003057168098166585,
                8.898550731828436e-05,
                -0.0016141688684001565,
                0.00046293955529108644,
                0.00022697118401993066,
                -0.00158095289953053,
                0.00014478547382168472,
                -0.0005150808137841523,
                -0.0014412228483706713,
                0.0009073549299500883,
                -0.0006664636312052608,
                -0.0012280070222914219,
                -0.000523522961884737,
                -0.0003348361060488969,
                0.0002288572577526793,
                -0.0007200560066848993,
                -0.0014536979142576456,
                0.000763546850066632,
                -0.00033236006856895983,
                -0.0008396861958317459,
                -0.000794102146755904,
                -4.0777209505904466e-05,
                -0.00047209853073582053
            ],
            "bias": [
                0.01751074194908142,
                -0.004248947836458683,
                -0.02411365695297718,
                -0.13039369881153107,
                -0.014460661448538303,
                -0.014632067643105984,
                -0.00876978226006031,
                -0.004925835877656937,
                -0.014253406785428524,
                -0.004314706660807133,
                -0.040917910635471344,
                -0.0148222167044878,
                -0.09548331052064896,
                -0.13738153874874115,
                0.01644892804324627,
                -0.0009783984860405326
            ]
        },
        "useBatchNormalization": "False",
        "activation": "relu",
        "inbounds": [
            "input"
        ],
        "numInputs": 1,
        "inputId": [
            0
        ],
        "inputPlanes": 1
    },
    "Layer_2": {
        "name": "conv_2",
        "type": "Conv2D",
        "kernel_size": 3,
        "padding": "same",
        "strides": 1,
        "outputPlanes": 16,
        "useBias": "True",
        "weights": {
            "kernel": [
                -0.0016805499326437712,
                0.0007067464175634086,
                0.0012822332791984081,
                -0.0006327822920866311,
                -4.711986912298016e-05,
                0.0004676295502576977,
                0.00021263225062284619,
                -5.064081778982654e-05,
                -0.0013473894214257598,
                0.00047873391304165125,
                0.0004731327062472701,
                -0.0006529815727844834,
                -0.00023853196762502193,
                -0.0002502200659364462,
                -0.001724500791169703,
                -0.0008120804559439421,
                -0.0005787525442428887,
                0.0011314853327348828,
                0.00018730892043095082,
                1.824106766434852e-05,
                -0.001067131059244275,
                0.0006932908436283469,
                -0.0003720271633937955,
                -0.0025065725203603506,
                -0.0003176089667249471,
                -0.000968726584687829,
                -0.0004890455747954547,
                0.0019451937405392528,
                -0.000762374431360513,
                -0.0007783937035128474,
                0.0006475875270552933,
                -0.0007094874745234847,
                0.0007859868928790092,
                -0.0005844508414156735,
                -4.160307798883878e-05,
                -0.001997858053073287,
                0.0015013873344287276,
                4.5384742406895384e-05,
                0.00037456880090758204,
                -0.0004890101845376194,
                0.0007845638319849968,
                -0.0003207817208021879,
                0.0007430257392115891,
                -0.002025648020207882,
                -0.0011695066932588816,
                -0.0014833540190011263,
                0.0010875423904508352,
                0.0003047657373826951,
                0.0010433857096359134,
                0.0001777805300662294,
                -0.0013782117748633027,
                -0.0005293072899803519,
                -0.000993346911855042,
                -0.0011571455979719758,
                -0.0004084385291207582,
                -0.00013107589620631188,
                -0.0001432570570614189,
                -0.0002711427223403007,
                0.001970709068700671,
                0.0006754096830263734,
                -0.00022882228950038552,
                -4.720380729850149e-06,
                -0.0007973635219968855,
                -0.0004890630953013897,
                -0.00025486573576927185,
                -0.001495908247306943,
                -4.297542182030156e-05,
                -0.0005086533492431045,
                0.0008970401249825954,
                0.0012521115131676197,
                0.00011602425365708768,
                -0.0018175950972363353,
                -0.0022434499114751816,
                -0.00027863887953571975,
                -0.0005578609998337924,
                -0.0005527124158106744,
                -0.0005932041676715016,
                -0.003045690944418311,
                0.0012446907348930836,
                -0.00014458400255534798,
                0.000954594521317631,
                0.001232992741279304,
                0.0021177988965064287,
                -0.0008216155110858381,
                -0.0006809532642364502,
                -0.000871456868480891,
                -0.0005619385046884418,
                -0.0013046502135694027,
                0.0008060987456701696,
                0.0013255487428978086,
                0.0013253852957859635,
                0.001559019205160439,
                0.0011114359367638826,
                -0.0007797986036166549,
                0.0004985069390386343,
                0.0008405788103118539,
                -0.0009905289625748992,
                -0.0011190425138920546,
                -0.001622802927158773,
                -0.00042363154352642596,
                -0.0009492842946201563,
                0.0004245834716130048,
                -0.0017637060955166817,
                -0.0009364753495901823,
                -0.00041116392822004855,
                -0.0007938917260617018,
                -0.0006412648945115507,
                -0.0017684452468529344,
                -0.00015701352094765753,
                -0.00046651720185764134,
                0.0002095738163916394,
                0.0001803352643037215,
                0.0004968505236320198,
                -0.0026714180130511522,
                0.001045431476086378,
                -0.0006291241152212024,
                -0.00023546967713627964,
                -0.0008318640757352114,
                0.0009138879831880331,
                0.0019869389943778515,
                -0.0004069482965860516,
                -5.162664456292987e-05,
                -0.0018122814362868667,
                9.12419127416797e-05,
                0.0005709219258278608,
                0.0014636034611612558,
                -0.0012695187469944358,
                -0.0007420149631798267,
                -0.0011797442566603422,
                -0.00012073575635440648,
                -6.269236473599449e-05,
                0.00013085425598546863,
                0.0008398956269957125,
                -0.001613051863387227,
                -9.801685519050807e-05,
                -7.739171269349754e-05,
                0.0005019710515625775,
                -0.001101723755709827,
                -0.0011583217419683933,
                -0.0018157141748815775,
                -0.00042177774594165385,
                -0.0007854900322854519,
                0.0015231529250741005,
                -0.0002034172066487372,
                -0.048736486583948135,
                0.0677466094493866,
                -0.05761720985174179,
                0.06320691108703613,
                0.19378125667572021,
                0.04541976377367973,
                -0.04855373129248619,
                0.06354892253875732,
                -0.06276704370975494,
                0.0010786073980852962,
                0.0014279294991865754,
                0.00023479842639062554,
                0.00097604253096506,
                0.0022873154375702143,
                -0.0001773465337464586,
                0.00048060642438940704,
                0.0014304915675893426,
                0.0012562130577862263,
                0.0012969833333045244,
                0.03540084883570671,
                0.002057646866887808,
                0.03464430198073387,
                0.0709562674164772,
                0.03291391208767891,
                0.0023115777876228094,
                0.033861193805933,
                0.0034880684688687325,
                0.024380236864089966,
                0.050204645842313766,
                0.022224530577659607,
                0.05346803739666939,
                0.08410898596048355,
                0.05210178717970848,
                0.024146612733602524,
                0.05255228653550148,
                0.025115007534623146,
                0.0017001148080453277,
                0.03354369103908539,
                0.0027675756718963385,
                0.03283585608005524,
                0.07094936072826385,
                0.032105155289173126,
                0.003679064102470875,
                0.03471509739756584,
                0.0026192336808890104,
                0.0023644878529012203,
                0.03372415155172348,
                0.002058766083791852,
                0.03370099887251854,
                0.0661025419831276,
                0.03078303672373295,
                0.004175673704594374,
                0.03158942237496376,
                0.004627636633813381,
                -0.009155328385531902,
                -0.007831166498363018,
                -0.011061197146773338,
                -0.0074934763833880424,
                -0.0077661918476223946,
                -0.008489768020808697,
                -0.007957486435770988,
                -0.008989998139441013,
                -0.008444098755717278,
                0.0004905994865112007,
                0.00176783197093755,
                0.0018789864843711257,
                0.0005197247955948114,
                -0.0018779573729261756,
                0.00038613416836597025,
                0.00012011752551188692,
                0.0001501349324826151,
                0.0015025638276711106,
                0.002764900913462043,
                0.034587062895298004,
                0.0030400874093174934,
                0.03420141711831093,
                0.06707096099853516,
                0.03232847899198532,
                0.003914660774171352,
                0.03460066765546799,
                0.00221263081766665,
                -0.0005952941719442606,
                0.001445633708499372,
                0.0009145686053670943,
                -0.0015105680795386434,
                0.000553764111828059,
                0.0016988874413073063,
                0.0002518089022487402,
                0.002387142041698098,
                2.182094431191217e-05,
                0.003139225300401449,
                0.037336356937885284,
                0.0031379067804664373,
                0.03337536379694939,
                0.07259874790906906,
                0.034365177154541016,
                0.003040931187570095,
                0.03404863551259041,
                0.001592852990143001,
                0.004837097600102425,
                0.032370924949645996,
                0.0038502856623381376,
                0.0324956439435482,
                0.06500092148780823,
                0.031702641397714615,
                0.00309281749650836,
                0.03217608109116554,
                0.005318824201822281,
                0.016496900469064713,
                0.04051078110933304,
                0.014832812361419201,
                0.044562406837940216,
                0.07186000049114227,
                0.04160664603114128,
                0.016235439106822014,
                0.04085399955511093,
                0.014642525464296341,
                0.026675639674067497,
                0.05402214825153351,
                0.026879793033003807,
                0.05546705424785614,
                0.08903659880161285,
                0.05761310085654259,
                0.025789430364966393,
                0.05317303165793419,
                0.023196347057819366,
                -0.04255108907818794,
                0.06541846692562103,
                -0.04947550967335701,
                0.055343147367239,
                0.18792405724525452,
                0.049002036452293396,
                -0.055400945246219635,
                0.05404793098568916,
                -0.06306307017803192,
                -0.0002826121053658426,
                -0.0018088764045387506,
                0.00017505045980215073,
                -0.0007812020485289395,
                0.00082736014155671,
                -0.0009678767528384924,
                -9.272900933865458e-05,
                0.000208525569178164,
                0.0003565437509678304,
                -0.05159449204802513,
                0.07120297104120255,
                -0.06174718216061592,
                0.06357025355100632,
                0.20762115716934204,
                0.05014755204319954,
                -0.059937044978141785,
                0.06932736188173294,
                -0.06532520055770874,
                -0.00015318489749915898,
                -1.1745662050088868e-05,
                0.0009989662794396281,
                -0.00038049701834097505,
                0.0003987684613093734,
                -0.000327284331433475,
                -0.00037521636113524437,
                -0.0007555223419331014,
                -0.000423148216214031,
                0.0006753058987669647,
                0.0367853082716465,
                -0.00015687588893342763,
                0.0309396144002676,
                0.07458989322185516,
                0.03579644113779068,
                -0.001851224573329091,
                0.03400145098567009,
                -0.000529376557096839,
                0.024113286286592484,
                0.052843332290649414,
                0.02224847860634327,
                0.05478530377149582,
                0.08686517179012299,
                0.054685771465301514,
                0.023370156064629555,
                0.05281561613082886,
                0.025911545380949974,
                0.0020878955256193876,
                0.0342579111456871,
                0.0006397546967491508,
                0.029905108734965324,
                0.07243973761796951,
                0.03383367881178856,
                -0.001836429932154715,
                0.03400736302137375,
                0.0009018667042255402,
                -0.0004525973927229643,
                0.03311469033360481,
                0.0013817019062116742,
                0.030231209471821785,
                0.06771309673786163,
                0.030853301286697388,
                -0.0014818994095548987,
                0.03221381455659866,
                0.0016342984745278955,
                -0.009868618100881577,
                -0.00935391429811716,
                -0.00969407893717289,
                -0.009932855144143105,
                -0.008407659828662872,
                -0.008742236532270908,
                -0.008160112425684929,
                -0.008430139161646366,
                -0.009235545061528683,
                0.00011290008114883676,
                -0.0002544104354456067,
                -0.0020824605599045753,
                -0.0016710091149434447,
                -0.0003844029561150819,
                6.68834472890012e-05,
                0.0008512571803294122,
                -0.0003013565728906542,
                0.00031287813908420503,
                0.0025821372400969267,
                0.03092295490205288,
                -0.00040927043301053345,
                0.030845126137137413,
                0.06906156241893768,
                0.03407291695475578,
                -0.00045563996536657214,
                0.03500819951295853,
                0.0009976403089240193,
                0.0015825626906007528,
                0.00011212611570954323,
                -0.0005740459891967475,
                0.00043637037742882967,
                1.0031126294052228e-05,
                -0.0006629897397942841,
                -0.00011162635928485543,
                0.0011291051050648093,
                -0.0004861481720581651,
                -0.00017763774667400867,
                0.03551900386810303,
                -0.0017055092612281442,
                0.035476405173540115,
                0.07560939341783524,
                0.033909980207681656,
                -0.0035009593702852726,
                0.03516274690628052,
                0.0017269006930291653,
                -0.0007568596629425883,
                0.03360985592007637,
                0.0028562217485159636,
                0.03186231479048729,
                0.06881590187549591,
                0.03138458728790283,
                0.000314965785946697,
                0.03195410221815109,
                0.0004294831305742264,
                0.017469607293605804,
                0.04184181988239288,
                0.012814565561711788,
                0.042447030544281006,
                0.07368166744709015,
                0.042886555194854736,
                0.01639462076127529,
                0.04089656099677086,
                0.01512918621301651,
                0.02529892884194851,
                0.05601799860596657,
                0.025471065193414688,
                0.05754789710044861,
                0.09103107452392578,
                0.05770469084382057,
                0.024339303374290466,
                0.05463464930653572,
                0.024962211027741432,
                -0.04969076067209244,
                0.07265172898769379,
                -0.05254431441426277,
                0.05831693485379219,
                0.2018464207649231,
                0.052713219076395035,
                -0.06480774283409119,
                0.0587172731757164,
                -0.06556619703769684,
                6.561121699633077e-05,
                -0.00021127655054442585,
                -0.0005124186864122748,
                0.001383050694130361,
                0.001629623002372682,
                -0.0006791282794438303,
                0.00021725179976783693,
                -0.00030442257411777973,
                0.0005452149780467153,
                0.0009046997874975204,
                -0.0024040460120886564,
                0.00046591716818511486,
                -0.00020702736219391227,
                -0.0005661792238242924,
                -0.00037200009683147073,
                0.0006239450303837657,
                0.00012980551400687546,
                0.0008667727233842015,
                -0.0012797798262909055,
                -0.0012637615436688066,
                -0.0010406762594357133,
                -0.0015919250436127186,
                -0.0016866123769432306,
                -0.00224804668687284,
                -0.0011875801719725132,
                -0.0008347074617631733,
                -0.0011633483227342367,
                0.00020709812815766782,
                -0.002404577797278762,
                -0.0021597312297672033,
                -0.0009759445674717426,
                -0.0007133777835406363,
                -0.002158315619453788,
                -0.0020337041933089495,
                -0.002808311954140663,
                -0.0018561710603535175,
                0.0014183910097926855,
                -0.0011259072925895452,
                0.0010642166016623378,
                0.0008162916637957096,
                0.00030282442457973957,
                0.001474824850447476,
                0.0006304391426965594,
                -0.001326961675658822,
                0.000772894243709743,
                0.0006419359124265611,
                0.0003676996275316924,
                -0.0003082062758039683,
                -0.0014827983686700463,
                -0.000617580080870539,
                0.0004908337141387165,
                -5.894158312003128e-05,
                -0.00024091020168270916,
                -0.0017698763404041529,
                -0.0025143108796328306,
                -0.002172463806346059,
                -0.005257939454168081,
                -0.0018972238758578897,
                -0.0032279142178595066,
                -0.0028857062570750713,
                -0.0028186130803078413,
                -0.00288695958442986,
                -0.001562014571391046,
                -0.0012671013828366995,
                -0.001039725262671709,
                0.0003562378988135606,
                -0.004272950813174248,
                -0.0011207923525944352,
                4.747862840304151e-05,
                0.0003882365708705038,
                0.0001796785945771262,
                -0.000847707677166909,
                0.0008183734607882798,
                0.0012656492181122303,
                0.00042052738717757165,
                -0.0013181132962927222,
                0.0003111675614491105,
                0.0002768977137748152,
                -0.001835320144891739,
                -0.0010048543335869908,
                -0.0003532324335537851,
                -0.0013916175812482834,
                -0.0015896623954176903,
                -0.0011135345557704568,
                -0.002747998107224703,
                -0.0009913066169247031,
                -0.004276536405086517,
                -0.0025414989795535803,
                -0.0020712928380817175,
                -0.002183519070968032,
                -0.0003386269381735474,
                -0.00028949708212167025,
                -0.0019635409116744995,
                0.0015872764633968472,
                -0.00035885118995793164,
                -0.0010045249946415424,
                0.0010710826609283686,
                -0.0007938832859508693,
                -0.0009910870576277375,
                -0.0005180613370612264,
                -0.0010779935400933027,
                -0.000814358820207417,
                -0.00014657870633527637,
                0.0005777633632533252,
                0.00034686297294683754,
                -0.00010674855002434924,
                0.0012787574669346213,
                -0.0029891571030020714,
                -0.0027359556406736374,
                -0.001789169036783278,
                -0.0017485677963122725,
                -0.0015202253125607967,
                -0.0011848116992041469,
                -0.0030940843280404806,
                -0.000385104154702276,
                -0.0022613005712628365,
                -0.0022794767282903194,
                0.0004158063093200326,
                0.0005478097009472549,
                -0.00016234426584560424,
                0.0001976667408598587,
                0.0010979549260810018,
                0.0010723817395046353,
                -0.001015982823446393,
                0.001037504873238504,
                -0.0006507672951556742,
                0.0005320509662851691,
                0.00038199155824258924,
                0.00014172052033245564,
                0.00016100025095511228,
                -9.466903429711238e-05,
                0.0021311992313712835,
                0.0020103577990084887,
                0.001021836418658495,
                0.0003661499358713627,
                -0.000422394135966897,
                0.0010881093330681324,
                -0.0017784411320462823,
                0.0014307384844869375,
                0.0004573490296024829,
                -0.00023389274429064244,
                -0.0015052114613354206,
                0.0003242608509026468,
                0.0006614609737880528,
                0.0004119222576264292,
                0.00022381459712050855,
                -0.0006210991996340454,
                0.0014273663982748985,
                -0.0002518812834750861,
                -6.267317803576589e-05,
                -0.00033753583556972444,
                0.0006238236092031002,
                -0.00228866352699697,
                0.00019616307690739632,
                -0.0003032456443179399,
                0.000590963289141655,
                -0.0009071675012819469,
                0.00023385867825709283,
                -0.0006884688045829535,
                0.0016136158956214786,
                0.0005486670997925103,
                -0.00013307639164850116,
                9.027763735502958e-05,
                -0.0012937614228576422,
                -0.001674549886956811,
                -0.0017836980987340212,
                0.0002748029073700309,
                -0.002529364312067628,
                0.0007636882364749908,
                -0.0005836806958541274,
                -0.002143389778211713,
                -0.00037007947685196996,
                -0.0010232870699837804,
                -0.0006964098429307342,
                -0.001664959592744708,
                -0.000779960653744638,
                -0.002918810350820422,
                -0.0022600649390369654,
                -0.0010257142130285501,
                -0.0006771038169972599,
                -0.0008081032428890467,
                -0.0009164761868305504,
                -0.0008147864718921483,
                0.00033955174149014056,
                -0.00024537602439522743,
                0.0005581342848017812,
                -0.0008807301637716591,
                -0.0019104697275906801,
                0.0013306569308042526,
                -0.0011299573816359043,
                -0.0012682159431278706,
                0.00043148279655724764,
                0.0006000798312015831,
                0.0005184108740650117,
                0.0005997259868308902,
                -0.0002708169922698289,
                0.0012113277334719896,
                0.0009542930056340992,
                -0.002576484577730298,
                -0.0006209416314959526,
                -0.002427314408123493,
                -0.0022859759628772736,
                0.00035509734880179167,
                5.0293278036406264e-05,
                -0.0010783440666273236,
                -0.002457190304994583,
                -0.0020102658309042454,
                0.0009709998266771436,
                0.0010112669551745057,
                0.0008979931008070707,
                -8.913255442166701e-05,
                0.0016139444196596742,
                -0.0012764163548126817,
                -0.00012154501746408641,
                0.00014580581046175212,
                0.0001876887836260721,
                -0.00022441762848757207,
                0.0008660697494633496,
                -0.0011535551166161895,
                -0.0020294245332479477,
                -0.0004734801477752626,
                -0.000821501191239804,
                -0.0008249539532698691,
                0.0009363337303511798,
                -0.0011517094681039453,
                0.0008955899393185973,
                -0.0010187705047428608,
                -0.0006211349391378462,
                -0.004400947131216526,
                -0.0005712088895961642,
                -0.0014571272768080235,
                -0.002532249316573143,
                -0.0022650433238595724,
                -0.0021286497358232737,
                -0.0006495803245343268,
                -0.0020661018788814545,
                0.0006185449892655015,
                0.0003447638009674847,
                -0.0011299741454422474,
                0.0013369335792958736,
                0.00041069951839745045,
                0.0001907805126393214,
                9.954657434718683e-05,
                0.001919602626003325,
                0.0003410509671084583,
                -0.0016077718464657664,
                -0.0010783456964418292,
                0.0007765755872242153,
                -0.0007449225522577763,
                -0.0001730506046442315,
                0.0002220102760475129,
                -0.0011096394155174494,
                -0.001840106793679297,
                -0.0015479911817237735,
                -0.0020577567629516125,
                -0.0007773382239975035,
                -0.0010774785187095404,
                -0.002070512855425477,
                -0.00203145039267838,
                -0.001776370801962912,
                -0.0021611021365970373,
                0.00024155460414476693,
                0.00048448899178765714,
                0.0007832166156731546,
                0.0005574825336225331,
                0.0016270435880869627,
                0.0002978956908918917,
                -0.0019517901819199324,
                0.0009237821213901043,
                0.0007438329630531371,
                9.061250602826476e-05,
                -0.0011505269212648273,
                0.00014288845704868436,
                -0.00012745155254378915,
                -0.002057295059785247,
                -0.0008668570662848651,
                7.214629295049235e-05,
                0.0010539315408095717,
                -0.001391627942211926,
                -0.00020231501548551023,
                -0.0003657853521872312,
                0.0002500949485693127,
                -0.0009886727202683687,
                3.219588688807562e-05,
                -0.00011091328633483499,
                0.00018263410311192274,
                -0.0022156378254294395,
                -0.00014943204587325454,
                0.0011122337309643626,
                -0.0007244598818942904,
                0.0013982123928144574,
                -0.000639873615000397,
                -0.0006691539310850203,
                -0.0010035240557044744,
                -0.0002305355155840516,
                -0.000495417567435652,
                -1.7755302906152792e-05,
                -0.0014483063714578748,
                -3.9628295780858025e-05,
                -0.0019708480685949326,
                0.0004710048669949174,
                -0.0009030827786773443,
                -0.0014597224071621895,
                -4.596845610649325e-05,
                -0.0002790355938486755,
                -0.00020041644165758044,
                -0.0003668094868771732,
                0.000738133501727134,
                -0.00021859818662051111,
                -0.0003235714102629572,
                5.7380519137950614e-05,
                -0.00175133824814111,
                -0.0009042521705850959,
                0.00011488705786177889,
                -0.00021856767125427723,
                -0.0009313327609561384,
                0.0009487263741903007,
                0.0003260941302869469,
                -0.002093540271744132,
                -0.0004801141330972314,
                -0.0005177823477424681,
                0.0003944203199353069,
                -0.0016748073976486921,
                -0.0013512264704331756,
                -0.0012637217296287417,
                0.0012031865771859884,
                -0.00016253603098448366,
                -0.002516313223168254,
                -0.0024373766500502825,
                0.0026778304018080235,
                -0.00033221874036826193,
                -0.000556187005713582,
                0.0003166859387420118,
                0.0009342686389572918,
                -0.0010691039497032762,
                0.0008878778317011893,
                4.0508530219085515e-05,
                -0.0010037068277597427,
                -0.0002676013100426644,
                0.00017911320901475847,
                -0.0011262871557846665,
                -5.26462790730875e-05,
                8.641212480142713e-05,
                -0.00037178763886913657,
                -0.002733142813667655,
                2.293593752256129e-05,
                -1.4680866115668323e-05,
                0.0005716602900065482,
                -0.0008604485192336142,
                -0.00016748087364248931,
                -0.001454596291296184,
                0.001759747858159244,
                -0.0007074490422382951,
                0.00010655899677658454,
                0.0003898634749930352,
                0.00020494051568675786,
                0.00039558892603963614,
                0.0001355224085273221,
                0.001626050565391779,
                0.0001370702957501635,
                0.0005286732921376824,
                -0.0011365185491740704,
                0.0005627133068628609,
                -0.0008013561018742621,
                -0.0002751080901362002,
                -2.5446775907767005e-05,
                0.0017803370719775558,
                0.00024848978500813246,
                -1.5437870388268493e-05,
                -0.0005833234754391015,
                -0.001144947367720306,
                0.000929817499127239,
                0.0005908000748604536,
                -0.0005303547950461507,
                0.0009359671385027468,
                -0.0005182466120459139,
                -0.00016097193292807788,
                -0.0019571008160710335,
                -0.00032495628693141043,
                -0.00027247253456152976,
                -0.0015445079188793898,
                0.00048630969831719995,
                -0.003405761206522584,
                0.0001912311854539439,
                0.001128590665757656,
                0.0020433447789400816,
                0.0014355662278831005,
                -0.0009659726056270301,
                0.00020074431085959077,
                0.0021019731648266315,
                -2.4813998606987298e-05,
                -7.140359957702458e-05,
                -0.0011153256054967642,
                0.00028629021835513413,
                0.0007892693975009024,
                -0.0012781050754711032,
                0.0017658963333815336,
                0.0010123461252078414,
                0.0003534046118147671,
                0.0008553194347769022,
                0.0003228190471418202,
                -0.000161875577759929,
                -4.698931661550887e-05,
                -0.0003181184292770922,
                -0.0019756704568862915,
                0.00156229583080858,
                5.3886589739704505e-05,
                0.0018705797847360373,
                0.0005772730801254511,
                -0.0005666656652465463,
                0.0007053125300444663,
                0.0021309780422598124,
                0.000984578626230359,
                -0.002152595901861787,
                -0.0002054218202829361,
                0.0006216629990376532,
                -7.9433957580477e-05,
                -0.00021554247359745204,
                0.00037675295607186854,
                -0.0011897286167368293,
                0.001297759939916432,
                -0.0004920716746710241,
                -0.0026925355195999146,
                -0.00037502130726352334,
                -0.0002286085655214265,
                7.429296238115057e-05,
                0.0013435410801321268,
                0.00011176703264936805,
                -0.0007309686043299735,
                -0.0007480243220925331,
                0.0003258106589782983,
                -0.00037719003739766777,
                0.002375414129346609,
                0.0009277566568925977,
                -0.0018260249635204673,
                -0.0015695694601163268,
                0.00032877791090868413,
                0.0003944622294511646,
                0.00037330976920202374,
                0.000647804350592196,
                -0.00039651760016568005,
                -0.04726210609078407,
                0.06928142160177231,
                -0.053531210869550705,
                0.05744986608624458,
                0.1934627741575241,
                0.0472521111369133,
                -0.05508441478013992,
                0.061851661652326584,
                -0.06133144348859787,
                0.003726773429661989,
                0.0023994059301912785,
                0.0030967441853135824,
                0.0030417742673307657,
                0.0019290935015305877,
                0.003433331148698926,
                0.003103794762864709,
                0.0027411116752773523,
                0.0026747838128358126,
                0.0024111629463732243,
                0.03567684069275856,
                0.003379055066034198,
                0.03187652677297592,
                0.07125628739595413,
                0.03444083034992218,
                -0.0007012396235950291,
                0.03391604870557785,
                0.0029068589210510254,
                0.023025717586278915,
                0.051293522119522095,
                0.02483910135924816,
                0.05295684188604355,
                0.08179128915071487,
                0.0531550794839859,
                0.023140380159020424,
                0.052635978907346725,
                0.02610531635582447,
                0.0008578372071497142,
                0.03638407588005066,
                0.0032863325905054808,
                0.03188389167189598,
                0.0683952122926712,
                0.03377250209450722,
                0.0006464120233431458,
                0.03405464068055153,
                0.0020167832262814045,
                0.002412591129541397,
                0.033525850623846054,
                0.0038284403271973133,
                0.031550489366054535,
                0.06520706415176392,
                0.03532634302973747,
                0.0012920023873448372,
                0.03184972703456879,
                0.004902619402855635,
                -0.009499812498688698,
                -0.008728078566491604,
                -0.00949840061366558,
                -0.00830590259283781,
                -0.01009979099035263,
                -0.009355185553431511,
                -0.007470329292118549,
                -0.008277990855276585,
                -0.00913753267377615,
                0.0007449309923686087,
                -5.5255950428545475e-05,
                0.0011145531898364425,
                -8.269059617305174e-05,
                0.0007809253875166178,
                0.0007929259445518255,
                0.0010702487779781222,
                0.0016971342265605927,
                0.00275834696367383,
                0.004121161997318268,
                0.03390337526798248,
                0.0034557052422314882,
                0.03293732926249504,
                0.06845616549253464,
                0.03363513574004173,
                0.002362955827265978,
                0.03305617347359657,
                0.004395483061671257,
                0.0028690763283520937,
                0.002831839257851243,
                0.003395157866179943,
                0.00215109228156507,
                0.0027789415325969458,
                0.0010381605243310332,
                0.0026547969318926334,
                0.00353075354360044,
                0.0023345525842159986,
                0.0027587346266955137,
                0.036451395601034164,
                0.005299590993672609,
                0.03237524628639221,
                0.07285575568675995,
                0.03461052104830742,
                -0.0005329959676600993,
                0.033881086856126785,
                0.004008334130048752,
                0.004425318446010351,
                0.034621462225914,
                0.0048784068785607815,
                0.030216358602046967,
                0.06639761477708817,
                0.03501186892390251,
                0.0016802556347101927,
                0.0338020846247673,
                0.003942821640521288,
                0.016643736511468887,
                0.04062512516975403,
                0.01562105305492878,
                0.04342006891965866,
                0.07017326354980469,
                0.04326093941926956,
                0.014399842359125614,
                0.041168875992298126,
                0.01691059023141861,
                0.025080660358071327,
                0.05434584990143776,
                0.028386015444993973,
                0.055683813989162445,
                0.08772146701812744,
                0.055530812591314316,
                0.024368755519390106,
                0.053287822753190994,
                0.024450577795505524,
                -0.044753171503543854,
                0.06861075758934021,
                -0.04547197371721268,
                0.05235932022333145,
                0.18727095425128937,
                0.050621502101421356,
                -0.06263414770364761,
                0.05389980599284172,
                -0.06245065852999687,
                0.0016991972224786878,
                -0.00022743269801139832,
                0.00011653303954517469,
                0.0017620332073420286,
                0.000431888154707849,
                -0.0010260653216391802,
                -0.0018952270038425922,
                0.0001060553258867003,
                -7.334431575145572e-05,
                0.09047333896160126,
                0.312585711479187,
                0.0476975217461586,
                -0.24730437994003296,
                -0.03576851263642311,
                -0.24964390695095062,
                0.045121077448129654,
                0.28947848081588745,
                0.03640221804380417,
                -0.0010164022678509355,
                -0.0011933590285480022,
                0.0004657111130654812,
                -0.0007587409927509725,
                -0.0013982761884108186,
                -0.0005812711897306144,
                -0.0018607755191624165,
                -0.0010548655409365892,
                0.0008933731005527079,
                0.02932896465063095,
                0.2077779620885849,
                0.019285693764686584,
                -0.1160556823015213,
                -0.000439117313362658,
                -0.11268968880176544,
                0.0169297493994236,
                0.19690272212028503,
                0.037409450858831406,
                -0.12145335227251053,
                0.03712360933423042,
                -0.1447248011827469,
                -0.2683458924293518,
                -0.2421390563249588,
                -0.2764217257499695,
                -0.13740332424640656,
                0.004359385464340448,
                -0.13770851492881775,
                0.02540840022265911,
                0.19914890825748444,
                0.014793992973864079,
                -0.10757049918174744,
                0.014977982267737389,
                -0.11371248960494995,
                0.01961381733417511,
                0.1886610984802246,
                0.03440067544579506,
                0.031663138419389725,
                0.18353380262851715,
                0.014333316124975681,
                -0.09406124800443649,
                0.019950827583670616,
                -0.09456449002027512,
                0.006936068180948496,
                0.17190955579280853,
                0.03153544291853905,
                -0.00032449912396259606,
                0.0008007425931282341,
                0.00023979145043995231,
                -0.002335125580430031,
                0.00026898246142081916,
                -0.0008236560388468206,
                -0.0009123397176153958,
                -0.00045588359353132546,
                0.0005842820391990244,
                0.0008238274022005498,
                0.001891339081339538,
                0.0007706439355388284,
                1.709628850221634e-05,
                -0.00031986142857931554,
                -0.0013802226167172194,
                -0.0009918949799612164,
                0.0008923315908759832,
                -0.00023585384769830853,
                0.026567863300442696,
                0.1906750202178955,
                0.02569781430065632,
                -0.1010613813996315,
                0.0010250401683151722,
                -0.10851175338029861,
                0.03529391810297966,
                0.18697528541088104,
                0.041333381086587906,
                -0.00044435489689931273,
                0.0006199308554641902,
                0.00041750186937861145,
                -0.001850040047429502,
                -0.0006743362755514681,
                -0.0012916876003146172,
                -0.00015459275164175779,
                -0.001246962114237249,
                -8.676192373968661e-05,
                0.035735100507736206,
                0.23657649755477905,
                0.024339251220226288,
                -0.12117930501699448,
                -0.001717149280011654,
                -0.12229932099580765,
                0.013251584954559803,
                0.22457988560199738,
                0.020252827554941177,
                0.037608448415994644,
                0.18496018648147583,
                0.02253090590238571,
                -0.09875433892011642,
                0.002850042190402746,
                -0.09380918741226196,
                0.028599971905350685,
                0.1779351383447647,
                0.03657107800245285,
                -0.03738093003630638,
                0.12862975895404816,
                -0.09327732026576996,
                -0.19620004296302795,
                -0.18414609134197235,
                -0.2135048806667328,
                -0.06707753986120224,
                0.09459710121154785,
                -0.06892555952072144,
                -0.12940062582492828,
                0.05506235361099243,
                -0.1561986654996872,
                -0.27516183257102966,
                -0.24252787232398987,
                -0.28495994210243225,
                -0.1474330723285675,
                0.05588313937187195,
                -0.1035916730761528,
                0.08295592665672302,
                0.3150210678577423,
                0.05263347178697586,
                -0.2509222626686096,
                -0.047831784933805466,
                -0.2556227147579193,
                0.0539875291287899,
                0.29522109031677246,
                0.06093866750597954,
                0.0006685847765766084,
                -0.0015788570744916797,
                0.0008027685107663274,
                -0.000799377157818526,
                0.0011707766680046916,
                -0.00041248317575082183,
                0.00018822163110598922,
                -0.001645643962547183,
                -0.0007682666182518005,
                -0.050822000950574875,
                0.06965015828609467,
                -0.05799250677227974,
                0.06047656759619713,
                0.19813616573810577,
                0.04631754010915756,
                -0.0542745366692543,
                0.06770101934671402,
                -0.060962922871112823,
                0.0015578632010146976,
                0.0020380394998937845,
                0.0028573947492986917,
                0.001964352559298277,
                0.0019318388076499104,
                -0.00022328727936837822,
                0.0031419105362147093,
                0.0021455909591168165,
                0.0017638400895521045,
                5.9924648667220026e-05,
                0.03473706170916557,
                0.0022086072713136673,
                0.03309217840433121,
                0.07114960253238678,
                0.034265294671058655,
                0.002412077272310853,
                0.034773748368024826,
                0.0009301466634497046,
                0.022807065397500992,
                0.04885703697800636,
                0.022671038284897804,
                0.051776573061943054,
                0.08497686684131622,
                0.05096237361431122,
                0.02472998946905136,
                0.05347811430692673,
                0.023707622662186623,
                0.003951529040932655,
                0.03535666689276695,
                0.002481707837432623,
                0.031729865819215775,
                0.07034242898225784,
                0.033802419900894165,
                -0.001562683843076229,
                0.033830247819423676,
                0.0028295814990997314,
                0.002049134112894535,
                0.0321800597012043,
                0.0011072269408032298,
                0.030397625640034676,
                0.06447172164916992,
                0.03143731877207756,
                0.003544651437550783,
                0.03178420290350914,
                0.004030706826597452,
                -0.009330304339528084,
                -0.01111952867358923,
                -0.009982476010918617,
                -0.00949858594685793,
                -0.010063081979751587,
                -0.009406423196196556,
                -0.009604090824723244,
                -0.008447011932730675,
                -0.009544319473206997,
                0.0017935214564204216,
                1.3864409083907958e-05,
                -1.6590895029366948e-05,
                -3.4452887121005915e-06,
                -0.0011203521862626076,
                0.0005712478887289762,
                0.001446967595256865,
                0.0006656870245933533,
                -7.123073737602681e-05,
                0.0022395127452909946,
                0.03340509533882141,
                0.0011202085297554731,
                0.03190005198121071,
                0.06914661079645157,
                0.032314375042915344,
                0.0015898497076705098,
                0.03396260365843773,
                0.003190218936651945,
                0.0014522094279527664,
                0.0007412168197333813,
                0.0003204287786502391,
                -0.0005579138523899019,
                5.339999552234076e-05,
                0.001713056699372828,
                0.001380715984851122,
                7.36600486561656e-05,
                0.0008892635232768953,
                0.000384793384000659,
                0.03766737878322601,
                0.003255323274061084,
                0.033516380935907364,
                0.07264910638332367,
                0.03416907787322998,
                0.0011949831387028098,
                0.03751950338482857,
                0.002759646624326706,
                0.004270392470061779,
                0.03285691514611244,
                0.003019036492332816,
                0.030570445582270622,
                0.06781919300556183,
                0.03412211686372757,
                0.0012047310592606664,
                0.03401587903499603,
                0.003508466063067317,
                0.01417330838739872,
                0.0393337719142437,
                0.01198806706815958,
                0.042233116924762726,
                0.07299811393022537,
                0.041964177042245865,
                0.015879375860095024,
                0.04289153218269348,
                0.015798689797520638,
                0.024926675483584404,
                0.05546021834015846,
                0.026572680100798607,
                0.05674920603632927,
                0.08946242928504944,
                0.055045705288648605,
                0.02521495148539543,
                0.05328274890780449,
                0.025337981060147285,
                -0.048355523496866226,
                0.0695042684674263,
                -0.04996214061975479,
                0.05485798791050911,
                0.19300542771816254,
                0.05108233541250229,
                -0.057672444730997086,
                0.056913118809461594,
                -0.0608302541077137,
                -0.001038747956044972,
                -0.0012335440842434764,
                -0.000764510768931359,
                -0.002590018091723323,
                0.00016328749188687652,
                -0.0010088958078995347,
                -0.0009290289017371833,
                0.0013245673617348075,
                0.00030631868867203593,
                -0.001494574942626059,
                -0.0003620158531703055,
                0.0003413503582123667,
                0.001274981303140521,
                0.0010136713972315192,
                0.0004272738005965948,
                0.0011421666713431478,
                0.0015567246591672301,
                -0.0013841978507116437,
                5.024773417972028e-05,
                0.000738344737328589,
                -0.001512581598944962,
                0.00018445459136273712,
                -0.001630420214496553,
                0.0011941554257646203,
                -0.0009358818642795086,
                0.0008850355516187847,
                -0.0009324752609245479,
                -0.0016971103614196181,
                -0.000777590146753937,
                -0.001996236154809594,
                -0.0005214130505919456,
                0.0003891805245075375,
                -0.0007997920620255172,
                0.0006605927483178675,
                -0.00021190554252825677,
                0.00036130528314970434,
                0.00035155826481059194,
                0.0005195708363316953,
                -0.0003157824103254825,
                -0.0008427006541751325,
                0.0007958814385347068,
                0.002453991211950779,
                -8.68599017849192e-05,
                -0.0003724949201568961,
                -0.00036054154043085873,
                -0.0014049012679606676,
                0.0006466133636422455,
                0.0006408797926269472,
                0.0011087855091318488,
                -0.0015308477450162172,
                -0.0006115048890933394,
                0.0024609537795186043,
                -0.00011023499973816797,
                -0.0003805162850767374,
                -0.0011265226639807224,
                0.0006469419458881021,
                -0.0016589656006544828,
                0.0001769000373315066,
                -0.0008965698070824146,
                0.001144649344496429,
                -0.00012249330757185817,
                -0.0006390985799953341,
                5.284006329020485e-05,
                0.0005852427566424012,
                -0.0016368597280234098,
                0.0008561956346966326,
                0.00034036237047985196,
                -0.0001528563880128786,
                0.0007623551064170897,
                0.0015071501256898046,
                0.0001452212454751134,
                0.00011964880832238123,
                0.0012717369245365262,
                0.0006555268773809075,
                -0.0002403952821623534,
                0.0008896455983631313,
                0.0010475912131369114,
                0.001056519104167819,
                0.00038164787110872567,
                8.640754094813019e-05,
                0.00043253909097984433,
                1.966213676496409e-05,
                -0.00013363132893573493,
                -0.0005889585008844733,
                -0.0022428156808018684,
                0.0002976431278511882,
                -3.9550377550767735e-05,
                0.001003733486868441,
                0.0006305904826149344,
                0.00013241959095466882,
                -0.0012827072059735656,
                0.0027129394002258778,
                0.0008714881259948015,
                -0.0011638033902272582,
                -0.00013827660586684942,
                -0.0015564574860036373,
                -0.00038504210533574224,
                -0.001229774672538042,
                -0.0020078448578715324,
                -0.0025384891778230667,
                0.0004012415884062648,
                0.0004263987357262522,
                0.00034520882763899863,
                0.0010574894258752465,
                0.0012952565448358655,
                -0.0010860621696338058,
                -0.0006538031157106161,
                -0.0006883382447995245,
                -2.198609581682831e-05,
                -0.0003857207193505019,
                -0.0004990201559849083,
                -1.5936939234961756e-05,
                0.0005145100876688957,
                -0.00035349614336155355,
                -0.00016092450823634863,
                0.0012407386675477028,
                -0.0014978972030803561,
                -0.0006067071808502078,
                -0.0011135170934721828,
                -0.0008325997041538358,
                -0.0008283987990580499,
                5.9484133089426905e-05,
                0.000710683932993561,
                -0.0008730151457712054,
                -0.0018124835332855582,
                0.00026596622774377465,
                -0.0008121543214656413,
                0.0003167674003634602,
                0.0008548776968382299,
                0.0008021703688427806,
                0.00019476749002933502,
                -0.0001492793089710176,
                -0.00039912224747240543,
                -0.00060596305411309,
                -0.00040080235339701176,
                -0.0001928815763676539,
                0.00030110866646282375,
                -0.00028844791813753545,
                5.653569314745255e-05,
                -0.0001684036396909505,
                0.0014757817843928933,
                0.00032049621222540736,
                0.0007609456079080701,
                0.0011928232852369547,
                -0.0005331194843165576,
                0.00042285738163627684,
                -0.00077089574187994,
                -0.0020592105574905872,
                0.0016535395989194512,
                0.0002704757498577237,
                0.001498223515227437,
                0.000978610711172223,
                0.00043690725578926504,
                -0.04725237935781479,
                0.06754819303750992,
                -0.05820632353425026,
                0.06050407141447067,
                0.19608892500400543,
                0.04643911495804787,
                -0.05176478251814842,
                0.06399445235729218,
                -0.059080444276332855,
                0.0023948990274220705,
                0.003419063985347748,
                0.0017681736499071121,
                0.001053435611538589,
                0.0034813578240573406,
                0.002402498619630933,
                0.00030724465614184737,
                0.0017502126283943653,
                0.0013616326032206416,
                0.001357504865154624,
                0.0342768058180809,
                0.0019200686365365982,
                0.03143289312720299,
                0.07285933941602707,
                0.034573111683130264,
                0.0012325579300522804,
                0.03622012957930565,
                0.002348376205191016,
                0.022910339757800102,
                0.04968491569161415,
                0.022013407200574875,
                0.053703900426626205,
                0.08486218750476837,
                0.05343135818839073,
                0.02641133964061737,
                0.050487298518419266,
                0.02797190472483635,
                0.003980169538408518,
                0.035829316824674606,
                0.0011359024792909622,
                0.032302387058734894,
                0.07019608467817307,
                0.03373599797487259,
                0.00282507692463696,
                0.03582824766635895,
                0.004183363635092974,
                0.003201755229383707,
                0.034201472997665405,
                0.003295289818197489,
                0.03327935189008713,
                0.06644394248723984,
                0.03182735666632652,
                0.002928169211372733,
                0.03523547202348709,
                0.0033667716197669506,
                -0.008236649446189404,
                -0.009729026816785336,
                -0.009533392265439034,
                -0.008193394169211388,
                -0.008246030658483505,
                -0.009172285906970501,
                -0.00985895935446024,
                -0.00864055473357439,
                -0.008359858766198158,
                -0.0006794130313210189,
                0.0016128079732879996,
                -0.0027544046752154827,
                0.0013887255918234587,
                0.0012263982789590955,
                0.0003521016042213887,
                0.000231295358389616,
                0.00011649333464447409,
                0.0007157887448556721,
                0.0057898024097085,
                0.03417060896754265,
                0.002184944925829768,
                0.033504024147987366,
                0.06786437332630157,
                0.032250721007585526,
                0.002671126276254654,
                0.0339076854288578,
                0.0032979650422930717,
                -0.000651173701044172,
                0.0008134810486808419,
                -0.0006218523485586047,
                -0.0008966181194409728,
                0.001215046620927751,
                0.0010491524590179324,
                0.0029441460501402617,
                0.0014014698099344969,
                0.0013522974913939834,
                0.005493982695043087,
                0.03570190817117691,
                0.0024132889229804277,
                0.0332145132124424,
                0.07364389300346375,
                0.03283790498971939,
                0.002578840358182788,
                0.03468998149037361,
                0.0032586699817329645,
                0.004115181975066662,
                0.034212689846754074,
                0.004403045866638422,
                0.03181463107466698,
                0.06683196127414703,
                0.03252115473151207,
                0.0029573366045951843,
                0.03352241963148117,
                0.004790994804352522,
                0.016839055344462395,
                0.04132883995771408,
                0.012174940668046474,
                0.043866418302059174,
                0.07091586291790009,
                0.04234360158443451,
                0.015116682276129723,
                0.041565343737602234,
                0.018410615622997284,
                0.026759430766105652,
                0.0541560985147953,
                0.02530430257320404,
                0.05574106425046921,
                0.08887903392314911,
                0.05582985654473305,
                0.024677352979779243,
                0.05419916659593582,
                0.02566092275083065,
                -0.04605601727962494,
                0.0688544362783432,
                -0.050186097621917725,
                0.05508699268102646,
                0.18827253580093384,
                0.049226682633161545,
                -0.057770006358623505,
                0.056927647441625595,
                -0.06186800077557564,
                0.0008849128498695791,
                -0.0005738505278714001,
                -0.0015350959729403257,
                0.0013575612101703882,
                0.0003727251896634698,
                -0.0009557949961163104,
                -0.0012556234141811728,
                -0.0011600987054407597,
                -0.0004340094164945185,
                -0.05173151567578316,
                0.07155910134315491,
                -0.05957776680588722,
                0.0605536587536335,
                0.20183713734149933,
                0.048379071056842804,
                -0.056651435792446136,
                0.06604661047458649,
                -0.06521564722061157,
                0.002114317612722516,
                0.0007931891595944762,
                0.0024809278547763824,
                0.0014072228223085403,
                0.0012627985561266541,
                0.0016304545570164919,
                -0.00010930104326689616,
                0.00037112724385224283,
                -0.0006701888050884008,
                -0.00070577283622697,
                0.034068357199430466,
                0.0018766986904665828,
                0.031089115887880325,
                0.07406977564096451,
                0.0333167128264904,
                -0.00252830539830029,
                0.03445454314351082,
                0.0026520886458456516,
                0.02135220542550087,
                0.05111239105463028,
                0.021665599197149277,
                0.054328545928001404,
                0.08644230663776398,
                0.0525834746658802,
                0.024104561656713486,
                0.05170726403594017,
                0.02461451292037964,
                0.0011870836606249213,
                0.03523018956184387,
                0.002380005782470107,
                0.030557647347450256,
                0.07099506258964539,
                0.03242126479744911,
                -0.0006908579962328076,
                0.034564223140478134,
                0.002102288417518139,
                -0.0007087833364494145,
                0.03267703205347061,
                0.0030357881914824247,
                0.03183339908719063,
                0.06969539821147919,
                0.032035522162914276,
                0.003055633744224906,
                0.03594042733311653,
                0.0029730717651546,
                -0.010455007664859295,
                -0.008474750444293022,
                -0.007730625104159117,
                -0.0064688134007155895,
                -0.00792610552161932,
                -0.009530573152005672,
                -0.008434039540588856,
                -0.007972565479576588,
                -0.00898805446922779,
                -0.0005485220463015139,
                -0.0007293273811228573,
                0.002465073252096772,
                7.847334200050682e-05,
                -0.0008294358267448843,
                0.0002591725788079202,
                0.0016332154627889395,
                -0.0006600363412871957,
                -0.0005571643705479801,
                0.0019890591502189636,
                0.032277949154376984,
                0.0022774585522711277,
                0.03296562284231186,
                0.06965547800064087,
                0.03185420110821724,
                -8.075093501247466e-05,
                0.03286094218492508,
                0.002281150547787547,
                0.0015361119294539094,
                0.00013608482549898326,
                0.0001488315756432712,
                0.000963304250035435,
                0.000491877319291234,
                0.0002917880774475634,
                -0.0005846201092936099,
                0.0019919737242162228,
                0.0011382156517356634,
                0.0027918610721826553,
                0.03603454306721687,
                -0.0001610640319995582,
                0.03463275730609894,
                0.07524509727954865,
                0.03365536406636238,
                -1.1157608241774142e-05,
                0.03573242947459221,
                0.0019860330503433943,
                -0.0003702038375195116,
                0.03318199887871742,
                0.003071330953389406,
                0.031417716294527054,
                0.06669314205646515,
                0.032957542687654495,
                0.001937176799401641,
                0.034257881343364716,
                0.003680049441754818,
                0.016356533393263817,
                0.04048511013388634,
                0.014592169784009457,
                0.04379002004861832,
                0.07276320457458496,
                0.04296493902802467,
                0.01514509879052639,
                0.041297733783721924,
                0.015373200178146362,
                0.025876298546791077,
                0.05531219393014908,
                0.026141749694943428,
                0.05456315353512764,
                0.090169757604599,
                0.05806701257824898,
                0.02504386194050312,
                0.053154654800891876,
                0.025114139541983604,
                -0.04947776347398758,
                0.06994188576936722,
                -0.048416826874017715,
                0.05478968098759651,
                0.1980265974998474,
                0.05018315091729164,
                -0.06293302029371262,
                0.05860578268766403,
                -0.06562168896198273,
                0.0006501614116132259,
                -6.186236714711413e-05,
                0.00044948558206669986,
                -0.0010412747506052256,
                -3.3008702303050086e-05,
                -0.0002079538389807567,
                -0.0010710888309404254,
                0.0017519037937745452,
                0.002260351786389947,
                -0.051696546375751495,
                0.06921923905611038,
                -0.05755222961306572,
                0.05699983984231949,
                0.1994829922914505,
                0.047487325966358185,
                -0.05352797359228134,
                0.06634990870952606,
                -0.060941632837057114,
                0.000563891779165715,
                0.00362147344276309,
                0.0012940824963152409,
                0.0022036670707166195,
                0.0026323487982153893,
                0.003274807706475258,
                0.0011991665232926607,
                0.0027463575825095177,
                0.0013989894650876522,
                -0.00026564428117126226,
                0.035623881965875626,
                0.0010671863565221429,
                0.03261352702975273,
                0.07218784093856812,
                0.03414790332317352,
                -0.0011241284664720297,
                0.03398828208446503,
                0.0025126771070063114,
                0.02245946228504181,
                0.05224887281656265,
                0.020072154700756073,
                0.05187869817018509,
                0.0830175057053566,
                0.05222960188984871,
                0.02509528212249279,
                0.05310434103012085,
                0.025598082691431046,
                0.00041691563092172146,
                0.034259334206581116,
                0.003851222340017557,
                0.030783962458372116,
                0.0716385692358017,
                0.031160442158579826,
                0.0005280608893372118,
                0.03512587770819664,
                0.0016767577035352588,
                0.0016485272208228707,
                0.031916242092847824,
                0.002409496111795306,
                0.03201941400766373,
                0.0648973137140274,
                0.030643893405795097,
                0.0027294193860143423,
                0.03338215500116348,
                0.0024416863452643156,
                -0.009025413542985916,
                -0.009082438424229622,
                -0.009286615997552872,
                -0.008108926936984062,
                -0.008559893816709518,
                -0.008319411426782608,
                -0.008735531009733677,
                -0.008032413199543953,
                -0.00874522514641285,
                0.00042851868784055114,
                0.0012753510382026434,
                0.00010536164336372167,
                0.0015170753467828035,
                0.0017787530086934566,
                -7.70327005739091e-06,
                -0.0007583448896184564,
                -0.0008743088692426682,
                -0.0014895922504365444,
                0.0020454167388379574,
                0.033198241144418716,
                0.003007521852850914,
                0.03216654062271118,
                0.06938549876213074,
                0.030957261100411415,
                0.0017916656797751784,
                0.035389285534620285,
                0.0005876524955965579,
                0.0008457644726149738,
                0.0007536565535701811,
                0.0018967841751873493,
                0.0001531531597720459,
                0.002253666752949357,
                5.260639954940416e-05,
                0.002050163922831416,
                0.0027175622526556253,
                0.0036617049481719732,
                -1.0233397915726528e-06,
                0.03483891859650612,
                0.00016712103388272226,
                0.03218331187963486,
                0.07498261332511902,
                0.03615789860486984,
                -0.00025646667927503586,
                0.034001387655735016,
                0.000937430770136416,
                0.0023529273457825184,
                0.03358443081378937,
                0.0034381665755063295,
                0.032576583325862885,
                0.06642528623342514,
                0.03300609067082405,
                0.0022951143328100443,
                0.03336091712117195,
                0.0033369099255651236,
                0.014810956083238125,
                0.04117950424551964,
                0.01317699532955885,
                0.04153730347752571,
                0.07193359732627869,
                0.04332258179783821,
                0.01579955592751503,
                0.041903529316186905,
                0.01513352245092392,
                0.023666054010391235,
                0.05432109162211418,
                0.026064418256282806,
                0.05640491843223572,
                0.08965660631656647,
                0.05662606284022331,
                0.025089852511882782,
                0.05461563915014267,
                0.02652469463646412,
                -0.04979636147618294,
                0.06969373673200607,
                -0.05123632028698921,
                0.05322796478867531,
                0.19365331530570984,
                0.051557186990976334,
                -0.06049313768744469,
                0.05527263134717941,
                -0.06287366896867752,
                0.0012137704761698842,
                0.0018842018907889724,
                -0.0011491255136206746,
                -0.0006512582185678184,
                -0.0005770885036326945,
                -0.0015813166974112391,
                -0.0019850763492286205,
                0.00027430514455772936,
                5.842053360538557e-05,
                -0.0470615029335022,
                0.06821662187576294,
                -0.0539100281894207,
                0.05790822207927704,
                0.19429579377174377,
                0.0480043888092041,
                -0.05407991632819176,
                0.061013247817754745,
                -0.060511767864227295,
                0.0014362179208546877,
                0.002115714829415083,
                0.0014748331159353256,
                0.0037574907764792442,
                0.0019902701023966074,
                0.002187164034694433,
                0.0027454919181764126,
                0.0009836186654865742,
                0.0030827256850898266,
                0.0008160570287145674,
                0.0347134992480278,
                0.004088634625077248,
                0.03181132301688194,
                0.07057733833789825,
                0.032766055315732956,
                0.0001579020026838407,
                0.03399284556508064,
                0.0021451052743941545,
                0.024010084569454193,
                0.049739986658096313,
                0.022883720695972443,
                0.053990140557289124,
                0.0846630185842514,
                0.05182909965515137,
                0.02418486587703228,
                0.051001716405153275,
                0.02366732992231846,
                0.002856131410226226,
                0.03727392852306366,
                0.0033658938482403755,
                0.03303838148713112,
                0.07036411762237549,
                0.0326378233730793,
                7.357393769780174e-07,
                0.03241744264960289,
                0.002400750759989023,
                0.0004151927132625133,
                0.032860349863767624,
                0.003294819500297308,
                0.030793040990829468,
                0.06678395718336105,
                0.033706262707710266,
                0.004789771977812052,
                0.03434877097606659,
                0.004417547956109047,
                -0.007792078889906406,
                -0.006828184239566326,
                -0.008650380186736584,
                -0.009743563830852509,
                -0.007220714818686247,
                -0.008456610143184662,
                -0.007960912771522999,
                -0.007185632362961769,
                -0.007980898953974247,
                -0.00016016334120649844,
                -0.0014049761230126023,
                0.0007011090056039393,
                0.0002926125889644027,
                0.0011098237009719014,
                0.0022991488222032785,
                0.0018213118892163038,
                0.0007414761930704117,
                0.0012572038685902953,
                0.0051724715158343315,
                0.034567344933748245,
                0.005077460315078497,
                0.030805444344878197,
                0.06737824529409409,
                0.03345789015293121,
                0.002930231625214219,
                0.03456800803542137,
                0.002857711398974061,
                0.0014879150548949838,
                0.0024042255245149136,
                0.002708784770220518,
                0.0009943949989974499,
                0.0013207914307713509,
                0.002547629177570343,
                0.003169429488480091,
                0.0023167994804680347,
                0.0017911256290972233,
                0.0034995502792298794,
                0.03652020916342735,
                0.00301801017485559,
                0.03354373946785927,
                0.07240214198827744,
                0.03390788659453392,
                -0.0003175946185365319,
                0.03508962690830231,
                0.0015589186223223805,
                0.004932780284434557,
                0.034506700932979584,
                0.005103461444377899,
                0.032449595630168915,
                0.0632287785410881,
                0.03233908861875534,
                0.0024483189918100834,
                0.032325346022844315,
                0.002623886102810502,
                0.015360993333160877,
                0.04123034328222275,
                0.015433392487466335,
                0.04253745824098587,
                0.07186843454837799,
                0.04210586100816727,
                0.014657283201813698,
                0.041351959109306335,
                0.016845809295773506,
                0.024540528655052185,
                0.055114373564720154,
                0.02854250930249691,
                0.05646095797419548,
                0.08695728331804276,
                0.05661626160144806,
                0.024419860914349556,
                0.05212216451764107,
                0.0253949873149395,
                -0.044808369129896164,
                0.06740851700305939,
                -0.04438852518796921,
                0.054479144513607025,
                0.18664881587028503,
                0.052554383873939514,
                -0.0607234425842762,
                0.05395541340112686,
                -0.05970117449760437,
                -0.0002430233871564269,
                0.00020900955132674426,
                0.0005458675441332161,
                0.0011589222121983767,
                0.0029887144919484854,
                -6.346007285173982e-05,
                0.0003949171514250338,
                6.535569264087826e-05,
                0.002102635335177183,
                -0.0006593714933842421,
                -0.0007936052861623466,
                -0.00039363099494948983,
                0.00019502354552969337,
                0.0006667351699434221,
                -0.00019264890579506755,
                4.8730311391409487e-05,
                -0.0010692632058635354,
                -0.00011353722220519558,
                0.0004285448230803013,
                -0.002040051855146885,
                0.00023524565040133893,
                -0.002125329105183482,
                5.6321579904761165e-05,
                -0.0003929126251023263,
                -0.0005042674019932747,
                -0.0020657931454479694,
                -0.0028945503290742636,
                -0.0008070099866017699,
                0.0008785389363765717,
                -0.0019158989889547229,
                0.000412579596741125,
                -0.0013317338889464736,
                -0.0014542612479999661,
                -0.0008596502593718469,
                -0.0008580231806263328,
                -0.0028408640064299107,
                -0.0011119031114503741,
                -0.0020647961646318436,
                0.0013488561380654573,
                -0.0011009633308276534,
                -0.0016081980429589748,
                0.001221145736053586,
                0.0021281305234879255,
                0.0004003577632829547,
                -0.0015541217289865017,
                0.0017503746785223484,
                -0.002099308418110013,
                -0.0015657086623832583,
                -0.00111966987606138,
                -0.0003602646756917238,
                0.00102714030072093,
                -0.0004543706018012017,
                -7.799985178280622e-05,
                -0.001262240344658494,
                -0.00098779471591115,
                -0.0019026416121050715,
                -0.0017707634251564741,
                -0.0033217635937035084,
                -0.0021916101686656475,
                -0.002600712003186345,
                -0.0019153911853209138,
                -0.0001948430872289464,
                -0.002055172575637698,
                -0.00026788655668497086,
                0.0007781232707202435,
                0.0016578810755163431,
                -0.00024851271882653236,
                0.0005439036758616567,
                0.0015181697672232985,
                -0.00029709437512792647,
                0.0020013980101794004,
                0.0025726037565618753,
                -0.0006663350504823029,
                -0.0005519324913620949,
                0.0009071343229152262,
                -0.000762260751798749,
                0.0007638099486939609,
                0.0001623337739147246,
                -0.00030802900437265635,
                -0.0006444051396101713,
                -0.001352557330392301,
                -0.003524238243699074,
                -0.0008411456947214901,
                -0.0023967784363776445,
                -0.002457328839227557,
                -0.0020372821018099785,
                -0.0009481785236857831,
                -0.0007850612164475024,
                -0.0026731810066848993,
                -0.0021204559598118067,
                -0.0001684224116615951,
                0.0008998254197649658,
                -0.0020711238030344248,
                -0.0016798629658296704,
                -0.0008074214565567672,
                0.0019341326551511884,
                -0.0013936004834249616,
                -0.0002164157631341368,
                -0.00020394849707372487,
                -0.0006789911421947181,
                -0.001806133659556508,
                0.0005678634624928236,
                -0.0008508052560500801,
                0.001877303933724761,
                0.0002770837163552642,
                -0.0011549546616151929,
                -0.001083336304873228,
                -0.001201495062559843,
                -0.0009028304484672844,
                -0.0010754246031865478,
                -0.0017466279678046703,
                -0.0032318138983100653,
                -0.001931266044266522,
                -0.0007218376849777997,
                -0.0010087499395012856,
                -0.001280271215364337,
                -0.0029834797605872154,
                -0.0007132783648557961,
                0.000627413101028651,
                -0.00034844191395677626,
                0.0013659960823133588,
                0.0006742871482856572,
                -0.00026905303820967674,
                -0.0016315656248480082,
                0.0015728157013654709,
                -0.0012600462650880218,
                0.0010797044960781932,
                -0.0009636660106480122,
                0.00118837074842304,
                7.561805250588804e-05,
                0.0001904053206089884,
